{"(np.int64(0), np.int64(1))": {"weights": [-0.3196389066478561, 0.008367284987862416, 0.02542807053523468, 0.050518707256322355, -0.036612569295322424, 0.03233435597024123, -0.045795834365204964, -0.0003645363303745627, -0.0037301649323171703, 0.06742074908410225, -0.06302151383244572, -0.24860528521393138, -0.18165818513015616, -1.3714163336983827, 0.08011105800863595, -0.010986198398327306, -0.054558105117597795, -0.013387794776950606, -0.04182513784136045, -0.02153883649261576], "bias": -1.1670744723592033}, "(np.int64(0), np.int64(2))": {"weights": [-0.2682678274852152, -0.08887066228657059, 0.02301318703080937, 0.008806214445170142, -0.03832925083985898, 0.015168162105385944, -0.021753810073268744, -0.020563875989345046, -0.014009157405900495, -0.03971563040614415, -0.022988859844615246, -0.16570659430862303, -0.11123679353165473, -1.2708064064958888, -0.014786383918014963, 0.01866278065406545, -0.04254483311227059, -0.11086205668782932, -0.05293402207662492, -0.005413556904250787], "bias": -0.3352463025194933}, "(np.int64(0), np.int64(3))": {"weights": [-0.23666969806301072, 0.0008226122065442922, -0.02377759836371946, 0.006814315167420827, 0.021777400606209897, -0.01199815778638739, -0.033928229399251796, -0.03050076639342782, -0.0007773313307857343, -0.026295857158534167, 0.023128287309470877, -0.10934676511998132, -0.09634773593303776, -0.9520829888431311, 0.004919405448865715, -0.0355432954418148, -0.0003593335611311048, -0.007608641194628271, -0.026971327965404936, 0.02850864993809687], "bias": 0.03102316464987835}, "(np.int64(1), np.int64(2))": {"weights": [-0.2909989219931186, -0.01790880103776952, -0.13538672626294607, 0.030339369061747078, 0.07587691038545658, 0.04968865299618598, 0.08276839523539856, 0.07697732070693808, -0.03847323788529523, -0.141648271759971, -0.011220937132626516, -0.08407236566181032, -0.18968155875660694, -1.3514846481978797, 0.11355608476461901, -0.020074349104093146, 0.0930149185074958, -0.08073917796001376, 0.09315587353502484, 0.017452006606863774], "bias": -0.060423229916355896}, "(np.int64(1), np.int64(3))": {"weights": [-0.3327333560208781, 0.024096587712692154, 0.060125201163332614, 0.04237543249730007, 0.005148309395728071, 0.02001278263228101, -0.05917560875281246, 0.0058236117807173495, 0.0011298685572931576, 0.07198027381708702, 0.026252157630383452, -0.06728317485109325, -0.1662747972751047, -1.2612402573527337, -0.00681665108129281, -0.00228239699266588, 0.01396828595897061, -0.008478768948405217, 0.027227780604070825, 0.032849125296334804], "bias": 0.5508074030991169}, "(np.int64(2), np.int64(3))": {"weights": [-0.41494315931637654, -0.036381689356650725, 0.11016313078351454, -0.040921211540272937, 0.04413751183628762, -0.06566020502472973, -0.05716543319453328, -0.06552998034451289, 0.14147142973719362, -0.09236503049411612, -0.04263303030220438, -0.1831318826507902, -0.22665147584967849, -1.290811057492835, -0.07859582566879979, -0.07657777680787652, -0.11882471906848574, -0.037199215603424325, -0.07835985735984295, -0.028041270112058446], "bias": 1.2442177640726293}}